{"graph_0": {"_type": "graph-file", "path": "media/graph/graph_0_summary_7e3cc202.graph.json", "sha256": "7e3cc202b4cfe7d5b8576cb9c5339ce4b32f2307b3d0dbc7c49df69ddbbb6d26", "size": 1076}, "loss": 0.20028989017009735, "_runtime": 32, "_timestamp": 1623145199, "_step": 1875, "gradients/fc4.bias": {"_type": "histogram", "values": [1.0, 0.0, 0.0, 0.0, 0.0, 0.0, 0.0, 0.0, 1.0, 0.0, 0.0, 1.0, 0.0, 0.0, 0.0, 1.0, 0.0, 0.0, 0.0, 0.0, 2.0, 0.0, 0.0, 0.0, 1.0, 0.0, 0.0, 0.0, 0.0, 0.0, 0.0, 0.0, 0.0, 0.0, 0.0, 1.0, 0.0, 0.0, 0.0, 0.0, 0.0, 1.0, 0.0, 0.0, 0.0, 0.0, 0.0, 0.0, 0.0, 0.0, 0.0, 0.0, 0.0, 0.0, 0.0, 0.0, 0.0, 0.0, 0.0, 0.0, 0.0, 0.0, 0.0, 1.0], "bins": [-0.0185486301779747, -0.01777791604399681, -0.01700720191001892, -0.01623648777604103, -0.015465772710740566, -0.014695058576762676, -0.013924343511462212, -0.013153629377484322, -0.012382915243506432, -0.011612201109528542, -0.010841486975550652, -0.010070771910250187, -0.009300057776272297, -0.008529343642294407, -0.00775862904265523, -0.006987914443016052, -0.006217200309038162, -0.005446486175060272, -0.004675771575421095, -0.0039050572086125612, -0.0031343428418040276, -0.002363628474995494, -0.0015929141081869602, -0.0008221997413784266, -5.148537456989288e-05, 0.0007192289922386408, 0.0014899433590471745, 0.002260657725855708, 0.003031372092664242, 0.0038020864594727755, 0.004572800826281309, 0.0053435154259204865, 0.0061142295598983765, 0.0068849436938762665, 0.007655658293515444, 0.008426372893154621, 0.009197087027132511, 0.009967801161110401, 0.010738516226410866, 0.011509230360388756, 0.012279944494366646, 0.013050658628344536, 0.013821372762322426, 0.01459208782762289, 0.01536280196160078, 0.016133517026901245, 0.016904231160879135, 0.017674945294857025, 0.018445659428834915, 0.019216373562812805, 0.019987087696790695, 0.020757801830768585, 0.021528515964746475, 0.022299231961369514, 0.023069946095347404, 0.023840660229325294, 0.024611374363303185, 0.025382088497281075, 0.026152802631258965, 0.026923516765236855, 0.027694232761859894, 0.028464946895837784, 0.029235661029815674, 0.030006375163793564, 0.030777089297771454]}, "gradients/fc4.weight": {"_type": "histogram", "values": [2.0, 0.0, 0.0, 0.0, 1.0, 0.0, 0.0, 2.0, 1.0, 3.0, 2.0, 3.0, 4.0, 2.0, 5.0, 3.0, 3.0, 2.0, 5.0, 7.0, 9.0, 13.0, 7.0, 19.0, 17.0, 28.0, 20.0, 281.0, 88.0, 33.0, 17.0, 13.0, 8.0, 5.0, 9.0, 3.0, 4.0, 1.0, 1.0, 0.0, 2.0, 2.0, 1.0, 1.0, 3.0, 3.0, 3.0, 0.0, 0.0, 0.0, 1.0, 1.0, 0.0, 0.0, 1.0, 0.0, 0.0, 0.0, 0.0, 0.0, 0.0, 0.0, 0.0, 1.0], "bins": [-0.09356768429279327, -0.09012630581855774, -0.0866849347949028, -0.08324355632066727, -0.07980217784643173, -0.0763608068227768, -0.07291942834854126, -0.06947804987430573, -0.06603667140007019, -0.06259530037641525, -0.05915392190217972, -0.05571254715323448, -0.052271172404289246, -0.04882979393005371, -0.045388419181108475, -0.04194704070687294, -0.038505665957927704, -0.03506429120898247, -0.03162291273474693, -0.028181537985801697, -0.02474016137421131, -0.021298784762620926, -0.01785741001367569, -0.014416033402085304, -0.010974656790494919, -0.007533280644565821, -0.0040919044986367226, -0.0006505283527076244, 0.0027908477932214737, 0.006232223939150572, 0.00967360008507967, 0.01311497576534748, 0.016556352376937866, 0.01999772898852825, 0.023439105600118637, 0.026880480349063873, 0.03032185696065426, 0.033763233572244644, 0.03720460832118988, 0.040645986795425415, 0.04408736154437065, 0.04752873629331589, 0.05097011476755142, 0.05441148951649666, 0.057852864265441895, 0.06129424273967743, 0.06473562121391296, 0.0681769922375679, 0.07161837071180344, 0.07505974918603897, 0.07850112020969391, 0.08194249868392944, 0.08538387715816498, 0.08882524818181992, 0.09226662665605545, 0.09570800513029099, 0.09914937615394592, 0.10259075462818146, 0.10603213310241699, 0.10947351157665253, 0.11291488260030746, 0.116356261074543, 0.11979763954877853, 0.12323901057243347, 0.126680389046669]}, "gradients/fc3.bias": {"_type": "histogram", "values": [1.0, 0.0, 0.0, 0.0, 0.0, 1.0, 1.0, 1.0, 2.0, 1.0, 1.0, 1.0, 1.0, 3.0, 1.0, 1.0, 3.0, 1.0, 3.0, 4.0, 3.0, 2.0, 1.0, 2.0, 3.0, 9.0, 0.0, 0.0, 0.0, 0.0, 2.0, 2.0, 2.0, 1.0, 2.0, 1.0, 0.0, 0.0, 0.0, 1.0, 0.0, 1.0, 0.0, 0.0, 2.0, 0.0, 0.0, 0.0, 1.0, 0.0, 1.0, 0.0, 0.0, 0.0, 0.0, 1.0, 0.0, 0.0, 0.0, 0.0, 0.0, 0.0, 0.0, 1.0], "bins": [-0.0067275953479111195, -0.0064598871394991875, -0.006192179396748543, -0.005924471188336611, -0.005656763445585966, -0.005389055237174034, -0.0051213474944233894, -0.0048536392860114574, -0.0045859310775995255, -0.004318223334848881, -0.004050515126436949, -0.003782807383686304, -0.003515099175274372, -0.0032473911996930838, -0.0029796832241117954, -0.002711975248530507, -0.0024442672729492188, -0.0021765592973679304, -0.001908851321786642, -0.001641143229790032, -0.0013734352542087436, -0.0011057272786274552, -0.000838019244838506, -0.0005703112110495567, -0.0003026032354682684, -3.48952307831496e-05, 0.0002328127739019692, 0.0005005208076909184, 0.0007682287832722068, 0.0010359367588534951, 0.0013036448508501053, 0.0015713528264313936, 0.001839060802012682, 0.0021067687775939703, 0.0023744767531752586, 0.002642184728756547, 0.0029098927043378353, 0.0031776009127497673, 0.0034453088883310556, 0.003713016863912344, 0.003980725072324276, 0.004248432815074921, 0.004516141023486853, 0.004783848766237497, 0.005051556974649429, 0.005319264717400074, 0.005586972925812006, 0.005854680668562651, 0.006122388876974583, 0.006390097085386515, 0.006657804828137159, 0.006925513036549091, 0.007193220779299736, 0.007460928987711668, 0.007728636730462313, 0.007996344938874245, 0.00826405268162489, 0.008531761355698109, 0.008799469098448753, 0.009067176841199398, 0.009334884583950043, 0.009602593258023262, 0.009870301000773907, 0.010138008743524551, 0.01040571741759777]}, "gradients/fc3.weight": {"_type": "histogram", "values": [1.0, 0.0, 0.0, 1.0, 0.0, 0.0, 0.0, 0.0, 0.0, 0.0, 0.0, 1.0, 0.0, 4.0, 3.0, 4.0, 8.0, 6.0, 8.0, 8.0, 13.0, 24.0, 30.0, 42.0, 70.0, 102.0, 180.0, 284.0, 561.0, 5928.0, 360.0, 129.0, 87.0, 71.0, 38.0, 28.0, 29.0, 27.0, 25.0, 14.0, 16.0, 4.0, 10.0, 6.0, 8.0, 3.0, 6.0, 6.0, 2.0, 4.0, 4.0, 4.0, 5.0, 2.0, 5.0, 4.0, 4.0, 5.0, 3.0, 2.0, 0.0, 1.0, 1.0, 1.0], "bins": [-0.036315277218818665, -0.03509628027677536, -0.03387727960944176, -0.032658278942108154, -0.03143928200006485, -0.030220283195376396, -0.029001284390687943, -0.02778228558599949, -0.026563286781311035, -0.02534428797662258, -0.024125289171934128, -0.022906290367245674, -0.02168729156255722, -0.020468292757868767, -0.019249293953180313, -0.01803029514849186, -0.016811296343803406, -0.015592297539114952, -0.014373298734426498, -0.013154299929738045, -0.011935301125049591, -0.010716302320361137, -0.009497303515672684, -0.00827830471098423, -0.007059305906295776, -0.005840307101607323, -0.004621308296918869, -0.0034023094922304153, -0.0021833106875419617, -0.000964311882853508, 0.0002546869218349457, 0.0014736857265233994, 0.002692684531211853, 0.003911683335900307, 0.00513068214058876, 0.006349680945277214, 0.007568679749965668, 0.008787678554654121, 0.010006677359342575, 0.011225676164031029, 0.012444674968719482, 0.013663673773407936, 0.01488267257809639, 0.016101671382784843, 0.017320670187473297, 0.01853966899216175, 0.019758667796850204, 0.020977666601538658, 0.022196665406227112, 0.023415664210915565, 0.02463466301560402, 0.025853661820292473, 0.027072660624980927, 0.02829165942966938, 0.029510658234357834, 0.030729657039046288, 0.03194865584373474, 0.033167652785778046, 0.03438665345311165, 0.03560565412044525, 0.036824651062488556, 0.03804364800453186, 0.03926264867186546, 0.040481649339199066, 0.04170064628124237]}, "gradients/fc2.bias": {"_type": "histogram", "values": [1.0, 0.0, 0.0, 0.0, 0.0, 3.0, 0.0, 0.0, 0.0, 1.0, 1.0, 0.0, 2.0, 0.0, 1.0, 1.0, 3.0, 2.0, 4.0, 4.0, 5.0, 5.0, 1.0, 5.0, 7.0, 7.0, 12.0, 31.0, 5.0, 3.0, 0.0, 3.0, 1.0, 1.0, 0.0, 1.0, 1.0, 1.0, 0.0, 2.0, 0.0, 3.0, 1.0, 2.0, 0.0, 0.0, 1.0, 1.0, 1.0, 1.0, 0.0, 0.0, 0.0, 0.0, 1.0, 1.0, 0.0, 1.0, 0.0, 0.0, 0.0, 0.0, 0.0, 1.0], "bins": [-0.005068136844784021, -0.004881902597844601, -0.00469566835090518, -0.004509434103965759, -0.004323199857026339, -0.004136965610086918, -0.003950731363147497, -0.003764496883377433, -0.003578262636438012, -0.0033920283894985914, -0.0032057941425591707, -0.00301955989561975, -0.0028333254158496857, -0.002647091168910265, -0.0024608569219708443, -0.0022746226750314236, -0.002088388428092003, -0.0019021541811525822, -0.0017159199342131615, -0.001529685570858419, -0.0013434513239189982, -0.0011572170769795775, -0.0009709827718324959, -0.0007847484666854143, -0.0005985142197459936, -0.00041227994370274246, -0.0002260456676594913, -3.9811391616240144e-05, 0.000146422884427011, 0.00033265716047026217, 0.0005188914365135133, 0.0007051257416605949, 0.0008913599886000156, 0.0010775942355394363, 0.001263828482478857, 0.0014500628458335996, 0.0016362970927730203, 0.001822531339712441, 0.0020087657030671835, 0.002194999950006604, 0.002381234196946025, 0.0025674684438854456, 0.0027537026908248663, 0.002939936937764287, 0.0031261714175343513, 0.003312405664473772, 0.0034986399114131927, 0.0036848741583526134, 0.003871108405292034, 0.004057342652231455, 0.0042435768991708755, 0.004429811146110296, 0.004616045393049717, 0.004802279639989138, 0.004988513886928558, 0.005174748133867979, 0.0053609823808074, 0.005547217093408108, 0.0057334513403475285, 0.005919685587286949, 0.00610591983422637, 0.0062921540811657906, 0.006478388328105211, 0.006664622575044632, 0.006850856821984053]}, "gradients/fc2.weight": {"_type": "histogram", "values": [1.0, 1.0, 1.0, 0.0, 1.0, 0.0, 1.0, 0.0, 1.0, 0.0, 0.0, 2.0, 4.0, 3.0, 6.0, 10.0, 10.0, 15.0, 10.0, 15.0, 22.0, 38.0, 57.0, 87.0, 115.0, 255.0, 642.0, 30729.0, 255.0, 120.0, 90.0, 55.0, 40.0, 35.0, 24.0, 18.0, 17.0, 10.0, 16.0, 14.0, 6.0, 4.0, 5.0, 1.0, 2.0, 2.0, 1.0, 6.0, 3.0, 4.0, 2.0, 3.0, 3.0, 2.0, 1.0, 1.0, 0.0, 0.0, 0.0, 1.0, 0.0, 0.0, 0.0, 1.0], "bins": [-0.06805731356143951, -0.06557978689670563, -0.06310226768255234, -0.06062474474310875, -0.05814722180366516, -0.05566969886422157, -0.053192175924777985, -0.050714652985334396, -0.04823713004589081, -0.04575960710644722, -0.04328208416700363, -0.04080456122756004, -0.038327038288116455, -0.03584951534867287, -0.03337199240922928, -0.03089446946978569, -0.028416946530342102, -0.025939423590898514, -0.023461900651454926, -0.020984377712011337, -0.01850685477256775, -0.01602933183312416, -0.013551808893680573, -0.011074285954236984, -0.008596763014793396, -0.006119240075349808, -0.0036417171359062195, -0.0011641941964626312, 0.001313328742980957, 0.0037908516824245453, 0.0062683746218681335, 0.008745897561311722, 0.01122342050075531, 0.013700943440198898, 0.016178466379642487, 0.018655989319086075, 0.021133512258529663, 0.02361103519797325, 0.02608855813741684, 0.028566081076860428, 0.031043604016304016, 0.033521126955747604, 0.03599864989519119, 0.03847617283463478, 0.04095369577407837, 0.04343121871352196, 0.045908741652965546, 0.048386264592409134, 0.05086378753185272, 0.05334131047129631, 0.0558188334107399, 0.05829635635018349, 0.060773879289627075, 0.06325140595436096, 0.06572892516851425, 0.06820644438266754, 0.07068397104740143, 0.07316149771213531, 0.0756390169262886, 0.0781165361404419, 0.08059406280517578, 0.08307158946990967, 0.08554910868406296, 0.08802662789821625, 0.09050415456295013]}, "gradients/fc1.bias": {"_type": "histogram", "values": [2.0, 0.0, 0.0, 0.0, 0.0, 0.0, 0.0, 0.0, 0.0, 0.0, 0.0, 0.0, 0.0, 0.0, 0.0, 0.0, 0.0, 0.0, 0.0, 0.0, 1.0, 0.0, 0.0, 0.0, 0.0, 1.0, 4.0, 1.0, 1.0, 2.0, 2.0, 1.0, 3.0, 3.0, 2.0, 5.0, 8.0, 191.0, 3.0, 4.0, 4.0, 2.0, 3.0, 3.0, 1.0, 0.0, 1.0, 2.0, 1.0, 1.0, 0.0, 0.0, 0.0, 0.0, 1.0, 0.0, 0.0, 0.0, 0.0, 1.0, 1.0, 0.0, 0.0, 1.0], "bins": [-0.008776643313467503, -0.008542463183403015, -0.008308283053338528, -0.008074103854596615, -0.007839923724532127, -0.00760574359446764, -0.00737156393006444, -0.007137383799999952, -0.006903204135596752, -0.006669024005532265, -0.006434843875467777, -0.006200664211064577, -0.00596648408100009, -0.0057323044165968895, -0.005498124286532402, -0.005263944622129202, -0.005029764492064714, -0.004795584362000227, -0.004561404697597027, -0.004327224567532539, -0.004093044903129339, -0.0038588647730648518, -0.003624684875831008, -0.003390504978597164, -0.0031563250813633204, -0.0029221451841294765, -0.0026879652868956327, -0.002453785389661789, -0.0022196052595973015, -0.0019854253623634577, -0.0017512454651296139, -0.00151706556789577, -0.0012828856706619263, -0.0010487057734280825, -0.0008145258179865777, -0.000580345862545073, -0.00034616596531122923, -0.00011198603897355497, 0.0001221938873641193, 0.00035637381370179355, 0.0005905537400394678, 0.0008247336372733116, 0.0010589135345071554, 0.001293093548156321, 0.0015272734453901649, 0.0017614533426240087, 0.0019956333562731743, 0.002229813253507018, 0.002463993150740862, 0.0026981730479747057, 0.0029323529452085495, 0.0031665328424423933, 0.003400712739676237, 0.0036348928697407246, 0.0038690727669745684, 0.004103252664208412, 0.0043374327942729, 0.0045716124586761, 0.004805792588740587, 0.005039972253143787, 0.005274152383208275, 0.005508332047611475, 0.0057425121776759624, 0.005976691842079163, 0.00621087197214365]}, "gradients/fc1.weight": {"_type": "histogram", "values": [2.0, 2.0, 4.0, 3.0, 5.0, 14.0, 16.0, 13.0, 13.0, 17.0, 14.0, 24.0, 28.0, 18.0, 459.0, 129.0, 78.0, 1114.0, 91.0, 91.0, 568.0, 134.0, 118.0, 732.0, 2034.0, 926.0, 2100.0, 2884.0, 4745.0, 5234.0, 154838.0, 7537.0, 3500.0, 3063.0, 2444.0, 1637.0, 2506.0, 1313.0, 129.0, 91.0, 563.0, 75.0, 47.0, 43.0, 32.0, 17.0, 32.0, 17.0, 27.0, 36.0, 42.0, 49.0, 1006.0, 18.0, 15.0, 2.0, 4.0, 1.0, 4.0, 3.0, 1.0, 0.0, 1.0, 1.0], "bins": [-0.012209099717438221, -0.01180864404886961, -0.011408187448978424, -0.011007731780409813, -0.010607276111841202, -0.01020682044327259, -0.00980636477470398, -0.009405908174812794, -0.009005452506244183, -0.008604996837675571, -0.008204540237784386, -0.0078040845692157745, -0.007403628900647163, -0.007003173232078552, -0.006602717097848654, -0.006202260963618755, -0.005801805295050144, -0.005401349626481533, -0.005000893492251635, -0.004600437358021736, -0.004199981689453125, -0.00379952578805387, -0.0033990698866546154, -0.0029986139852553606, -0.002598158083856106, -0.002197702182456851, -0.0017972462810575962, -0.0013967903796583414, -0.0009963344782590866, -0.0005958785768598318, -0.000195422675460577, 0.0002050332259386778, 0.0006054891273379326, 0.0010059450287371874, 0.0014064009301364422, 0.001806856831535697, 0.0022073127329349518, 0.0026077686343342066, 0.0030082245357334614, 0.003408680437132716, 0.003809136338531971, 0.004209592007100582, 0.004610048141330481, 0.005010504275560379, 0.00541095994412899, 0.005811415612697601, 0.0062118717469275, 0.006612327881157398, 0.007012783549726009, 0.0074132392182946205, 0.007813695818185806, 0.008214151486754417, 0.008614607155323029, 0.00901506282389164, 0.00941551849246025, 0.009815975092351437, 0.010216430760920048, 0.010616886429488659, 0.011017343029379845, 0.011417798697948456, 0.011818254366517067, 0.012218710035085678, 0.01261916570365429, 0.013019622303545475, 0.013420077972114086]}}